%YAML:1.0
opencv_ml_dtree:
   format: 3
   is_classifier: 1
   var_all: 7
   var_count: 6
   ord_var_count: 6
   cat_var_count: 1
   training_params:
      use_surrogates: 0
      max_categories: 2
      regression_accuracy: 9.9999997764825821e-03
      max_depth: 7
      min_sample_count: 10
      cross_validation_folds: 0
      priors: !!opencv-matrix
         rows: 1
         cols: 2
         dt: f
         data: [ 1., 1. ]
   global_var_idx: 1
   var_idx: [ 0, 1, 2, 3, 4, 5 ]
   var_type: [ 0, 0, 0, 0, 0, 0, 1 ]
   cat_ofs: [ 0, 0, 0, 0, 0, 0, 0, 0, 0, 0, 0, 0 ]
   class_labels: [ 0, 1 ]
   missing_subst: [ 0., 0., 0., 0., 0., 0., 0. ]
   nodes:
      -
         depth: 0
         value: 1.
         norm_class_idx: 1
         splits:
            - { var:0, quality:1503641., le:8.9944999694824219e+01 }
      -
         depth: 1
         value: 0.
         norm_class_idx: 0
         splits:
            - { var:0, quality:2.8308981250000000e+05,
                le:2.9385000228881836e+01 }
      -
         depth: 2
         value: 0.
         norm_class_idx: 0
         splits:
            - { var:0, quality:1.1630970312500000e+05,
                le:2.7500000000000000e+01 }
      -
         depth: 3
         value: 0.
         norm_class_idx: 0
         splits:
            - { var:0, quality:1.0983279687500000e+05,
                le:2.6165000915527344e+01 }
      -
         depth: 4
         value: 0.
         norm_class_idx: 0
         splits:
            - { var:0, quality:1.0509320312500000e+05,
                le:2.5614999771118164e+01 }
      -
         depth: 5
         value: 0.
         norm_class_idx: 0
         splits:
            - { var:0, quality:102906., le:2.5274999618530273e+01 }
      -
         depth: 6
         value: 0.
         norm_class_idx: 0
         splits:
            - { var:0, quality:101477., le:2.4274999618530273e+01 }
      -
         depth: 7
         value: 0.
         norm_class_idx: 0
      -
         depth: 7
         value: 0.
         norm_class_idx: 0
      -
         depth: 6
         value: 0.
         norm_class_idx: 0
         splits:
            - { var:2, quality:1.4290465087890625e+03,
                le:5.3850002288818359e+00 }
      -
         depth: 7
         value: 0.
         norm_class_idx: 0
      -
         depth: 7
         value: 0.
         norm_class_idx: 0
      -
         depth: 5
         value: 0.
         norm_class_idx: 0
         splits:
            - { var:1, quality:2.1880637207031250e+03,
                le:2.8725000381469727e+01 }
      -
         depth: 6
         value: 0.
         norm_class_idx: 0
         splits:
            - { var:3, quality:3.9724160766601562e+02,
                le:1.2999999523162842e+00 }
      -
         depth: 7
         value: 0.
         norm_class_idx: 0
      -
         depth: 7
         value: 0.
         norm_class_idx: 0
      -
         depth: 6
         value: 0.
         norm_class_idx: 0
      -
         depth: 4
         value: 0.
         norm_class_idx: 0
         splits:
            - { var:1, quality:4.7581708984375000e+03,
                le:2.9614999771118164e+01 }
      -
         depth: 5
         value: 0.
         norm_class_idx: 0
         splits:
            - { var:4, quality:7.5872479248046875e+02,
                le:2.0050001144409180e+00 }
      -
         depth: 6
         value: 0.
         norm_class_idx: 0
         splits:
            - { var:1, quality:1.3857139587402344e+02,
                le:2.6500000000000000e+01 }
      -
         depth: 7
         value: 0.
         norm_class_idx: 0
      -
         depth: 7
         value: 0.
         norm_class_idx: 0
      -
         depth: 6
         value: 0.
         norm_class_idx: 0
         splits:
            - { var:2, quality:6.3512487792968750e+02,
                le:6.0550003051757812e+00 }
      -
         depth: 7
         value: 0.
         norm_class_idx: 0
      -
         depth: 7
         value: 0.
         norm_class_idx: 0
      -
         depth: 5
         value: 0.
         norm_class_idx: 0
         splits:
            - { var:2, quality:4.0586420898437500e+03,
                le:9.3850002288818359e+00 }
      -
         depth: 6
         value: 0.
         norm_class_idx: 0
         splits:
            - { var:4, quality:3.2911538696289062e+02,
                le:2.1849999427795410e+00 }
      -
         depth: 7
         value: 0.
         norm_class_idx: 0
      -
         depth: 7
         value: 0.
         norm_class_idx: 0
      -
         depth: 6
         value: 0.
         norm_class_idx: 0
      -
         depth: 3
         value: 0.
         norm_class_idx: 0
         splits:
            - { var:2, quality:6.8172944335937500e+03,
                le:1.0274999618530273e+01 }
      -
         depth: 4
         value: 0.
         norm_class_idx: 0
         splits:
            - { var:4, quality:1.9460698242187500e+03,
                le:2.1550002098083496e+00 }
      -
         depth: 5
         value: 1.
         norm_class_idx: 1
         splits:
            - { var:2, quality:6.8865277099609375e+02,
                le:7.1649999618530273e+00 }
      -
         depth: 6
         value: 0.
         norm_class_idx: 0
         splits:
            - { var:4, quality:6.0729030609130859e+01,
                le:9.1499996185302734e-01 }
      -
         depth: 7
         value: 0.
         norm_class_idx: 0
      -
         depth: 7
         value: 0.
         norm_class_idx: 0
      -
         depth: 6
         value: 1.
         norm_class_idx: 1
         splits:
            - { var:1, quality:6.5422760009765625e+02,
                le:3.2834999084472656e+01 }
      -
         depth: 7
         value: 1.
         norm_class_idx: 1
      -
         depth: 7
         value: 0.
         norm_class_idx: 0
      -
         depth: 5
         value: 0.
         norm_class_idx: 0
         splits:
            - { var:4, quality:1.3447806396484375e+03,
                le:2.4600000381469727e+00 }
      -
         depth: 6
         value: 0.
         norm_class_idx: 0
         splits:
            - { var:2, quality:5.5206897735595703e+01,
                le:7.2750000953674316e+00 }
      -
         depth: 7
         value: 0.
         norm_class_idx: 0
      -
         depth: 7
         value: 0.
         norm_class_idx: 0
      -
         depth: 6
         value: 0.
         norm_class_idx: 0
         splits:
            - { var:4, quality:1.2941390380859375e+03,
                le:2.5549998283386230e+00 }
      -
         depth: 7
         value: 0.
         norm_class_idx: 0
      -
         depth: 7
         value: 0.
         norm_class_idx: 0
      -
         depth: 4
         value: 0.
         norm_class_idx: 0
         splits:
            - { var:2, quality:5.5328081054687500e+03,
                le:1.0500000000000000e+01 }
      -
         depth: 5
         value: 0.
         norm_class_idx: 0
         splits:
            - { var:4, quality:7.7743270874023438e+01,
                le:1.5399999618530273e+00 }
      -
         depth: 6
         value: 1.
         norm_class_idx: 1
         splits:
            - { var:1, quality:13., le:3.3275001525878906e+01 }
      -
         depth: 7
         value: 1.
         norm_class_idx: 1
      -
         depth: 7
         value: 0.
         norm_class_idx: 0
      -
         depth: 6
         value: 0.
         norm_class_idx: 0
         splits:
            - { var:4, quality:6.7333335876464844e+01,
                le:1.7950000762939453e+00 }
      -
         depth: 7
         value: 0.
         norm_class_idx: 0
      -
         depth: 7
         value: 0.
         norm_class_idx: 0
      -
         depth: 5
         value: 0.
         norm_class_idx: 0
         splits:
            - { var:2, quality:5.4659677734375000e+03,
                le:1.0944999694824219e+01 }
      -
         depth: 6
         value: 0.
         norm_class_idx: 0
         splits:
            - { var:4, quality:1.9060061645507812e+02,
                le:1.5249999761581421e+00 }
      -
         depth: 7
         value: 0.
         norm_class_idx: 0
      -
         depth: 7
         value: 0.
         norm_class_idx: 0
      -
         depth: 6
         value: 0.
         norm_class_idx: 0
         splits:
            - { var:1, quality:5.2781430664062500e+03,
                le:2.9385000228881836e+01 }
      -
         depth: 7
         value: 0.
         norm_class_idx: 0
      -
         depth: 7
         value: 0.
         norm_class_idx: 0
      -
         depth: 2
         value: 0.
         norm_class_idx: 0
         splits:
            - { var:4, quality:1.7768343750000000e+05,
                le:3.5949997901916504e+00 }
      -
         depth: 3
         value: 0.
         norm_class_idx: 0
         splits:
            - { var:2, quality:1.2713259375000000e+05,
                le:1.2725000381469727e+01 }
      -
         depth: 4
         value: 1.
         norm_class_idx: 1
         splits:
            - { var:0, quality:2.5786898437500000e+04,
                le:4.6055000305175781e+01 }
      -
         depth: 5
         value: 1.
         norm_class_idx: 1
         splits:
            - { var:1, quality:2.2595521484375000e+04,
                le:2.9274999618530273e+01 }
      -
         depth: 6
         value: 0.
         norm_class_idx: 0
         splits:
            - { var:0, quality:9.8615765380859375e+02,
                le:3.1725000381469727e+01 }
      -
         depth: 7
         value: 0.
         norm_class_idx: 0
      -
         depth: 7
         value: 0.
         norm_class_idx: 0
      -
         depth: 6
         value: 1.
         norm_class_idx: 1
         splits:
            - { var:2, quality:2.2589326171875000e+04,
                le:1.1835000038146973e+01 }
      -
         depth: 7
         value: 1.
         norm_class_idx: 1
      -
         depth: 7
         value: 1.
         norm_class_idx: 1
      -
         depth: 5
         value: 0.
         norm_class_idx: 0
         splits:
            - { var:2, quality:4.7349350585937500e+03,
                le:1.1614999771118164e+01 }
      -
         depth: 6
         value: 0.
         norm_class_idx: 0
         splits:
            - { var:1, quality:4.3530761718750000e+03,
                le:4.3500000000000000e+01 }
      -
         depth: 7
         value: 0.
         norm_class_idx: 0
      -
         depth: 7
         value: 0.
         norm_class_idx: 0
      -
         depth: 6
         value: 1.
         norm_class_idx: 1
         splits:
            - { var:0, quality:5.8286328125000000e+02,
                le:5.1724998474121094e+01 }
      -
         depth: 7
         value: 1.
         norm_class_idx: 1
      -
         depth: 7
         value: 0.
         norm_class_idx: 0
      -
         depth: 4
         value: 0.
         norm_class_idx: 0
         splits:
            - { var:0, quality:1.2013139062500000e+05,
                le:6.1944999694824219e+01 }
      -
         depth: 5
         value: 0.
         norm_class_idx: 0
         splits:
            - { var:2, quality:8.9294914062500000e+04,
                le:1.6614999771118164e+01 }
      -
         depth: 6
         value: 0.
         norm_class_idx: 0
         splits:
            - { var:0, quality:2.5111503906250000e+04,
                le:4.1275001525878906e+01 }
      -
         depth: 7
         value: 0.
         norm_class_idx: 0
      -
         depth: 7
         value: 1.
         norm_class_idx: 1
      -
         depth: 6
         value: 0.
         norm_class_idx: 0
         splits:
            - { var:0, quality:6.9789679687500000e+04,
                le:5.3944999694824219e+01 }
      -
         depth: 7
         value: 0.
         norm_class_idx: 0
      -
         depth: 7
         value: 0.
         norm_class_idx: 0
      -
         depth: 5
         value: 1.
         norm_class_idx: 1
         splits:
            - { var:2, quality:5.4668769531250000e+04,
                le:2.7944999694824219e+01 }
      -
         depth: 6
         value: 1.
         norm_class_idx: 1
         splits:
            - { var:0, quality:3.3344089843750000e+04,
                le:7.0614997863769531e+01 }
      -
         depth: 7
         value: 1.
         norm_class_idx: 1
      -
         depth: 7
         value: 1.
         norm_class_idx: 1
      -
         depth: 6
         value: 0.
         norm_class_idx: 0
         splits:
            - { var:2, quality:2.2725412109375000e+04,
                le:2.8834999084472656e+01 }
      -
         depth: 7
         value: 0.
         norm_class_idx: 0
      -
         depth: 7
         value: 0.
         norm_class_idx: 0
      -
         depth: 3
         value: 0.
         norm_class_idx: 0
         splits:
            - { var:4, quality:6.0294902343750000e+04,
                le:4.4549999237060547e+00 }
      -
         depth: 4
         value: 0.
         norm_class_idx: 0
         splits:
            - { var:0, quality:1.0171131835937500e+04,
                le:7.2614997863769531e+01 }
      -
         depth: 5
         value: 0.
         norm_class_idx: 0
         splits:
            - { var:0, quality:8.5991210937500000e+03,
                le:5.5944999694824219e+01 }
      -
         depth: 6
         value: 0.
         norm_class_idx: 0
         splits:
            - { var:0, quality:5.8791909179687500e+03,
                le:5.2614997863769531e+01 }
      -
         depth: 7
         value: 0.
         norm_class_idx: 0
      -
         depth: 7
         value: 0.
         norm_class_idx: 0
      -
         depth: 6
         value: 0.
         norm_class_idx: 0
         splits:
            - { var:2, quality:2.9944885253906250e+03,
                le:2.2274999618530273e+01 }
      -
         depth: 7
         value: 0.
         norm_class_idx: 0
      -
         depth: 7
         value: 0.
         norm_class_idx: 0
      -
         depth: 5
         value: 0.
         norm_class_idx: 0
         splits:
            - { var:2, quality:2.2472565917968750e+03,
                le:2.9165000915527344e+01 }
      -
         depth: 6
         value: 1.
         norm_class_idx: 1
         splits:
            - { var:2, quality:1.2021237792968750e+03,
                le:1.8385000228881836e+01 }
      -
         depth: 7
         value: 0.
         norm_class_idx: 0
      -
         depth: 7
         value: 1.
         norm_class_idx: 1
      -
         depth: 6
         value: 0.
         norm_class_idx: 0
         splits:
            - { var:2, quality:1.3892681884765625e+03,
                le:3.1055000305175781e+01 }
      -
         depth: 7
         value: 0.
         norm_class_idx: 0
      -
         depth: 7
         value: 0.
         norm_class_idx: 0
      -
         depth: 4
         value: 0.
         norm_class_idx: 0
         splits:
            - { var:0, quality:5.0535453125000000e+04,
                le:7.3944999694824219e+01 }
      -
         depth: 5
         value: 0.
         norm_class_idx: 0
         splits:
            - { var:5, quality:4.1921910156250000e+04,
                le:3.7550001144409180e+00 }
      -
         depth: 6
         value: 0.
         norm_class_idx: 0
         splits:
            - { var:0, quality:1.2823124023437500e+04,
                le:4.7834999084472656e+01 }
      -
         depth: 7
         value: 0.
         norm_class_idx: 0
      -
         depth: 7
         value: 0.
         norm_class_idx: 0
      -
         depth: 6
         value: 0.
         norm_class_idx: 0
         splits:
            - { var:2, quality:2.9106466796875000e+04,
                le:2.1944999694824219e+01 }
      -
         depth: 7
         value: 0.
         norm_class_idx: 0
      -
         depth: 7
         value: 0.
         norm_class_idx: 0
      -
         depth: 5
         value: 0.
         norm_class_idx: 0
         splits:
            - { var:2, quality:8.7421708984375000e+03,
                le:2.8500000000000000e+01 }
      -
         depth: 6
         value: 0.
         norm_class_idx: 0
         splits:
            - { var:3, quality:2.4324216308593750e+03,
                le:6.7550001144409180e+00 }
      -
         depth: 7
         value: 0.
         norm_class_idx: 0
      -
         depth: 7
         value: 0.
         norm_class_idx: 0
      -
         depth: 6
         value: 0.
         norm_class_idx: 0
         splits:
            - { var:2, quality:6.4393725585937500e+03,
                le:3.0165000915527344e+01 }
      -
         depth: 7
         value: 0.
         norm_class_idx: 0
      -
         depth: 7
         value: 0.
         norm_class_idx: 0
      -
         depth: 1
         value: 1.
         norm_class_idx: 1
         splits:
            - { var:4, quality:1.2536157500000000e+06,
                le:1.0395000457763672e+01 }
      -
         depth: 2
         value: 1.
         norm_class_idx: 1
         splits:
            - { var:2, quality:1.2538181250000000e+06,
                le:8.7944999694824219e+01 }
      -
         depth: 3
         value: 1.
         norm_class_idx: 1
         splits:
            - { var:0, quality:1.1936836250000000e+06,
                le:1.2761499786376953e+02 }
      -
         depth: 4
         value: 1.
         norm_class_idx: 1
         splits:
            - { var:2, quality:6.0271765625000000e+04,
                le:4.2834999084472656e+01 }
      -
         depth: 5
         value: 1.
         norm_class_idx: 1
         splits:
            - { var:2, quality:5.5501949218750000e+04,
                le:2.2165000915527344e+01 }
      -
         depth: 6
         value: 0.
         norm_class_idx: 0
         splits:
            - { var:2, quality:1.7090891113281250e+03,
                le:2.1165000915527344e+01 }
      -
         depth: 7
         value: 0.
         norm_class_idx: 0
      -
         depth: 7
         value: 0.
         norm_class_idx: 0
      -
         depth: 6
         value: 1.
         norm_class_idx: 1
         splits:
            - { var:4, quality:5.4777433593750000e+04,
                le:5.9749999046325684e+00 }
      -
         depth: 7
         value: 1.
         norm_class_idx: 1
      -
         depth: 7
         value: 1.
         norm_class_idx: 1
      -
         depth: 5
         value: 0.
         norm_class_idx: 0
         splits:
            - { var:0, quality:8.3833388671875000e+03,
                le:1.1650000000000000e+02 }
      -
         depth: 6
         value: 0.
         norm_class_idx: 0
         splits:
            - { var:2, quality:6.1580429687500000e+03,
                le:4.4834999084472656e+01 }
      -
         depth: 7
         value: 0.
         norm_class_idx: 0
      -
         depth: 7
         value: 0.
         norm_class_idx: 0
      -
         depth: 6
         value: 0.
         norm_class_idx: 0
         splits:
            - { var:2, quality:3.7650131835937500e+03,
                le:5.0165000915527344e+01 }
      -
         depth: 7
         value: 1.
         norm_class_idx: 1
      -
         depth: 7
         value: 0.
         norm_class_idx: 0
      -
         depth: 4
         value: 1.
         norm_class_idx: 1
         splits:
            - { var:2, quality:1.1434782500000000e+06,
                le:7.6385002136230469e+01 }
      -
         depth: 5
         value: 1.
         norm_class_idx: 1
         splits:
            - { var:0, quality:1.0907898750000000e+06,
                le:1.6116500854492188e+02 }
      -
         depth: 6
         value: 1.
         norm_class_idx: 1
         splits:
            - { var:2, quality:1.6640657812500000e+05,
                le:5.8500000000000000e+01 }
      -
         depth: 7
         value: 1.
         norm_class_idx: 1
      -
         depth: 7
         value: 0.
         norm_class_idx: 0
      -
         depth: 6
         value: 1.
         norm_class_idx: 1
         splits:
            - { var:2, quality:9.3299262500000000e+05,
                le:7.2724998474121094e+01 }
      -
         depth: 7
         value: 1.
         norm_class_idx: 1
      -
         depth: 7
         value: 1.
         norm_class_idx: 1
      -
         depth: 5
         value: 1.
         norm_class_idx: 1
         splits:
            - { var:0, quality:6.2177285156250000e+04,
                le:2.0816500854492188e+02 }
      -
         depth: 6
         value: 0.
         norm_class_idx: 0
         splits:
            - { var:0, quality:5.3507167968750000e+03,
                le:1.9661499023437500e+02 }
      -
         depth: 7
         value: 0.
         norm_class_idx: 0
      -
         depth: 7
         value: 0.
         norm_class_idx: 0
      -
         depth: 6
         value: 1.
         norm_class_idx: 1
         splits:
            - { var:0, quality:5.7173015625000000e+04,
                le:2.1938500976562500e+02 }
      -
         depth: 7
         value: 1.
         norm_class_idx: 1
      -
         depth: 7
         value: 1.
         norm_class_idx: 1
      -
         depth: 3
         value: 1.
         norm_class_idx: 1
         splits:
            - { var:0, quality:9.8360750000000000e+04,
                le:2.5338500976562500e+02 }
      -
         depth: 4
         value: 0.
         norm_class_idx: 0
         splits:
            - { var:0, quality:2.5372503906250000e+04,
                le:2.4816500854492188e+02 }
      -
         depth: 5
         value: 0.
         norm_class_idx: 0
         splits:
            - { var:2, quality:2.2466300781250000e+04,
                le:9.1834999084472656e+01 }
      -
         depth: 6
         value: 0.
         norm_class_idx: 0
         splits:
            - { var:0, quality:3.7871721191406250e+03,
                le:2.2705499267578125e+02 }
      -
         depth: 7
         value: 0.
         norm_class_idx: 0
      -
         depth: 7
         value: 1.
         norm_class_idx: 1
      -
         depth: 6
         value: 0.
         norm_class_idx: 0
         splits:
            - { var:3, quality:1.9640316406250000e+04,
                le:1.2944999694824219e+01 }
      -
         depth: 7
         value: 0.
         norm_class_idx: 0
      -
         depth: 7
         value: 0.
         norm_class_idx: 0
      -
         depth: 5
         value: 0.
         norm_class_idx: 0
         splits:
            - { var:2, quality:4.9727221679687500e+03,
                le:1.0294499969482422e+02 }
      -
         depth: 6
         value: 1.
         norm_class_idx: 1
         splits:
            - { var:2, quality:1.5568527832031250e+03,
                le:1.0205500030517578e+02 }
      -
         depth: 7
         value: 1.
         norm_class_idx: 1
      -
         depth: 7
         value: 1.
         norm_class_idx: 1
      -
         depth: 6
         value: 0.
         norm_class_idx: 0
         splits:
            - { var:2, quality:3.4347158203125000e+03,
                le:1.0461499786376953e+02 }
      -
         depth: 7
         value: 0.
         norm_class_idx: 0
      -
         depth: 7
         value: 0.
         norm_class_idx: 0
      -
         depth: 4
         value: 1.
         norm_class_idx: 1
         splits:
            - { var:0, quality:7.3933429687500000e+04,
                le:2.5405499267578125e+02 }
      -
         depth: 5
         value: 1.
         norm_class_idx: 1
         splits:
            - { var:2, quality:3.4288596191406250e+03,
                le:1.0672499847412109e+02 }
      -
         depth: 6
         value: 1.
         norm_class_idx: 1
         splits:
            - { var:2, quality:1.9216666259765625e+03,
                le:1.0583499908447266e+02 }
      -
         depth: 7
         value: 1.
         norm_class_idx: 1
      -
         depth: 7
         value: 1.
         norm_class_idx: 1
      -
         depth: 6
         value: 1.
         norm_class_idx: 1
         splits:
            - { var:5, quality:1.6715917968750000e+03,
                le:2.7849998474121094e+00 }
      -
         depth: 7
         value: 1.
         norm_class_idx: 1
      -
         depth: 7
         value: 1.
         norm_class_idx: 1
      -
         depth: 5
         value: 1.
         norm_class_idx: 1
         splits:
            - { var:2, quality:70828., le:1.0927500152587891e+02 }
      -
         depth: 6
         value: 1.
         norm_class_idx: 1
         splits:
            - { var:1, quality:5.1828136718750000e+04,
                le:2.5350000000000000e+02 }
      -
         depth: 7
         value: 0.
         norm_class_idx: 0
      -
         depth: 7
         value: 1.
         norm_class_idx: 1
      -
         depth: 6
         value: 1.
         norm_class_idx: 1
         splits:
            - { var:5, quality:1.9102812500000000e+04,
                le:1.7799999713897705e+00 }
      -
         depth: 7
         value: 1.
         norm_class_idx: 1
      -
         depth: 7
         value: 1.
         norm_class_idx: 1
      -
         depth: 2
         value: 0.
         norm_class_idx: 0
         splits:
            - { var:5, quality:1.3020787109375000e+04,
                le:9.3750000000000000e+00 }
      -
         depth: 3
         value: 0.
         norm_class_idx: 0
         splits:
            - { var:0, quality:5.4745263671875000e+03,
                le:1.8827499389648438e+02 }
      -
         depth: 4
         value: 0.
         norm_class_idx: 0
         splits:
            - { var:0, quality:4.4866406250000000e+03,
                le:1.3683499145507812e+02 }
      -
         depth: 5
         value: 0.
         norm_class_idx: 0
         splits:
            - { var:2, quality:2.9241618652343750e+03,
                le:4.1944999694824219e+01 }
      -
         depth: 6
         value: 0.
         norm_class_idx: 0
         splits:
            - { var:0, quality:1.3156077880859375e+03,
                le:1.1627500152587891e+02 }
      -
         depth: 7
         value: 0.
         norm_class_idx: 0
      -
         depth: 7
         value: 0.
         norm_class_idx: 0
      -
         depth: 6
         value: 0.
         norm_class_idx: 0
         splits:
            - { var:0, quality:1.6811259765625000e+03,
                le:1.2661499786376953e+02 }
      -
         depth: 7
         value: 0.
         norm_class_idx: 0
      -
         depth: 7
         value: 0.
         norm_class_idx: 0
      -
         depth: 5
         value: 0.
         norm_class_idx: 0
         splits:
            - { var:2, quality:2.1081049804687500e+03,
                le:5.9500000000000000e+01 }
      -
         depth: 6
         value: 1.
         norm_class_idx: 1
         splits:
            - { var:2, quality:1.3351586914062500e+03,
                le:3.8165000915527344e+01 }
      -
         depth: 7
         value: 0.
         norm_class_idx: 0
      -
         depth: 7
         value: 1.
         norm_class_idx: 1
      -
         depth: 6
         value: 0.
         norm_class_idx: 0
         splits:
            - { var:2, quality:1.0173848876953125e+03,
                le:6.7275001525878906e+01 }
      -
         depth: 7
         value: 0.
         norm_class_idx: 0
      -
         depth: 7
         value: 0.
         norm_class_idx: 0
      -
         depth: 4
         value: 1.
         norm_class_idx: 1
         splits:
            - { var:2, quality:1.5617121582031250e+03,
                le:7.9055000305175781e+01 }
      -
         depth: 5
         value: 1.
         norm_class_idx: 1
         splits:
            - { var:2, quality:1.4638017578125000e+03,
                le:4.6389999389648438e+01 }
      -
         depth: 6
         value: 0.
         norm_class_idx: 0
         splits:
            - { var:1, quality:6.6364105224609375e+01,
                le:1.9905499267578125e+02 }
      -
         depth: 7
         value: 0.
         norm_class_idx: 0
      -
         depth: 7
         value: 0.
         norm_class_idx: 0
      -
         depth: 6
         value: 1.
         norm_class_idx: 1
         splits:
            - { var:3, quality:1.4097121582031250e+03,
                le:1.5434999465942383e+01 }
      -
         depth: 7
         value: 1.
         norm_class_idx: 1
      -
         depth: 7
         value: 1.
         norm_class_idx: 1
      -
         depth: 5
         value: 0.
         norm_class_idx: 0
         splits:
            - { var:3, quality:2.2265545654296875e+02,
                le:2.0895000457763672e+01 }
      -
         depth: 6
         value: 0.
         norm_class_idx: 0
         splits:
            - { var:2, quality:2.2024679565429688e+02,
                le:8.2779998779296875e+01 }
      -
         depth: 7
         value: 0.
         norm_class_idx: 0
      -
         depth: 7
         value: 0.
         norm_class_idx: 0
      -
         depth: 6
         value: 1.
         norm_class_idx: 1
         splits:
            - { var:2, quality:1.2342857360839844e+01,
                le:1.1127500152587891e+02 }
      -
         depth: 7
         value: 1.
         norm_class_idx: 1
      -
         depth: 7
         value: 0.
         norm_class_idx: 0
      -
         depth: 3
         value: 0.
         norm_class_idx: 0
         splits:
            - { var:5, quality:8.3695654296875000e+03,
                le:1.0265000343322754e+01 }
      -
         depth: 4
         value: 0.
         norm_class_idx: 0
         splits:
            - { var:0, quality:7.7666394042968750e+02,
                le:1.9683499145507812e+02 }
      -
         depth: 5
         value: 0.
         norm_class_idx: 0
         splits:
            - { var:3, quality:7.1660906982421875e+02,
                le:2.3704999923706055e+01 }
      -
         depth: 6
         value: 0.
         norm_class_idx: 0
         splits:
            - { var:2, quality:6.8105999755859375e+02,
                le:2.9614999771118164e+01 }
      -
         depth: 7
         value: 0.
         norm_class_idx: 0
      -
         depth: 7
         value: 0.
         norm_class_idx: 0
      -
         depth: 6
         value: 0.
         norm_class_idx: 0
         splits:
            - { var:4, quality:5.3997352600097656e+01,
                le:2.9064998626708984e+01 }
      -
         depth: 7
         value: 1.
         norm_class_idx: 1
      -
         depth: 7
         value: 0.
         norm_class_idx: 0
      -
         depth: 5
         value: 1.
         norm_class_idx: 1
         splits:
            - { var:2, quality:1.2533684539794922e+02,
                le:7.8665000915527344e+01 }
      -
         depth: 6
         value: 1.
         norm_class_idx: 1
         splits:
            - { var:3, quality:9.3021736145019531e+01,
                le:2.1165000915527344e+01 }
      -
         depth: 7
         value: 1.
         norm_class_idx: 1
      -
         depth: 7
         value: 0.
         norm_class_idx: 0
      -
         depth: 6
         value: 0.
         norm_class_idx: 0
      -
         depth: 4
         value: 0.
         norm_class_idx: 0
         splits:
            - { var:0, quality:7.6814897460937500e+03,
                le:1.9883499145507812e+02 }
      -
         depth: 5
         value: 0.
         norm_class_idx: 0
         splits:
            - { var:5, quality:7.0320444335937500e+03,
                le:1.2385000228881836e+01 }
      -
         depth: 6
         value: 0.
         norm_class_idx: 0
         splits:
            - { var:3, quality:1.4599102783203125e+03,
                le:2.5755001068115234e+01 }
      -
         depth: 7
         value: 0.
         norm_class_idx: 0
      -
         depth: 7
         value: 0.
         norm_class_idx: 0
      -
         depth: 6
         value: 0.
         norm_class_idx: 0
         splits:
            - { var:0, quality:5.5784726562500000e+03,
                le:1.7983499145507812e+02 }
      -
         depth: 7
         value: 0.
         norm_class_idx: 0
      -
         depth: 7
         value: 0.
         norm_class_idx: 0
      -
         depth: 5
         value: 0.
         norm_class_idx: 0
         splits:
            - { var:2, quality:7.2933837890625000e+02,
                le:7.2385002136230469e+01 }
      -
         depth: 6
         value: 1.
         norm_class_idx: 1
         splits:
            - { var:4, quality:9.4066665649414062e+01,
                le:2.1459999084472656e+01 }
      -
         depth: 7
         value: 1.
         norm_class_idx: 1
      -
         depth: 7
         value: 0.
         norm_class_idx: 0
      -
         depth: 6
         value: 0.
         norm_class_idx: 0
         splits:
            - { var:3, quality:6.7424462890625000e+02,
                le:3.4815002441406250e+01 }
      -
         depth: 7
         value: 0.
         norm_class_idx: 0
      -
         depth: 7
         value: 0.
         norm_class_idx: 0
